Language model created by QuickLM on Fri Nov 13 00:56:58 EST 2015
Copyright (c) 1996-2010 Carnegie Mellon University and Alexander I. Rudnicky

The model is in standard ARPA format, designed by Doug Paul while he was at MITRE.

The code that was used to produce this language model is available in Open Source.
Please visit http://www.speech.cs.cmu.edu/tools/ for more information

The (fixed) discount mass is 0.5. The backoffs are computed using the ratio method.
This model based on a corpus of 10 sentences and 12 words

\data\
ngram 1=12
ngram 2=20
ngram 3=10

\1-grams:
-0.7782 </s> -0.3010
-0.7782 <s> -0.2218
-1.7782 CALENDAR -0.2218
-1.7782 CAMERA -0.2218
-1.7782 FACEBOOK -0.2218
-1.7782 LIGHT -0.2218
-1.7782 MUSIC -0.2218
-1.7782 NEWS -0.2218
-1.7782 OFF -0.2218
-1.7782 SETTINGS -0.2218
-1.7782 TRAFFIC -0.2218
-1.7782 WEATHER -0.2218

\2-grams:
-1.3010 <s> CALENDAR 0.0000
-1.3010 <s> CAMERA 0.0000
-1.3010 <s> FACEBOOK 0.0000
-1.3010 <s> LIGHT 0.0000
-1.3010 <s> MUSIC 0.0000
-1.3010 <s> NEWS 0.0000
-1.3010 <s> OFF 0.0000
-1.3010 <s> SETTINGS 0.0000
-1.3010 <s> TRAFFIC 0.0000
-1.3010 <s> WEATHER 0.0000
-0.3010 CALENDAR </s> -0.3010
-0.3010 CAMERA </s> -0.3010
-0.3010 FACEBOOK </s> -0.3010
-0.3010 LIGHT </s> -0.3010
-0.3010 MUSIC </s> -0.3010
-0.3010 NEWS </s> -0.3010
-0.3010 OFF </s> -0.3010
-0.3010 SETTINGS </s> -0.3010
-0.3010 TRAFFIC </s> -0.3010
-0.3010 WEATHER </s> -0.3010

\3-grams:
-0.3010 <s> CALENDAR </s>
-0.3010 <s> CAMERA </s>
-0.3010 <s> FACEBOOK </s>
-0.3010 <s> LIGHT </s>
-0.3010 <s> MUSIC </s>
-0.3010 <s> NEWS </s>
-0.3010 <s> OFF </s>
-0.3010 <s> SETTINGS </s>
-0.3010 <s> TRAFFIC </s>
-0.3010 <s> WEATHER </s>

\end\
